-0.681195
0.76
-0.272232
0.600201
-0.435073
-0.629799
-1.09223
-1.06099
-0.936959
0.338805
-0.442433
-1.12647
0.393733
0.264927
-0.00123822
-0.231238
0.597567
-0.386959
-1.09576
-0.945965
-0.821238
0.143532
-0.350994
0.440201
-0.215764
-0.00103769
0.0837325
-0.861195
-0.980994
0.84284
-1.01243
-0.905273
-0.286267
-0.365073
-0.521238
-2.0797
0.4
0.723404
1.0704
0.0872404
1.1704
-0.0365961
0.0207045
0.786563
-0.349696
-1.117
-1.47286
-0.842455
0.76724
0.0226994
-0.117301
-0.456996
-0.0434365
2.11626
0.985859
1.6427
-1.33286
-0.719295
1.4904
1.91626
0.793099
-1.37246
-1.4097
-1.3193
-0.733837
0.0430038
1.03684
-0.592455
1.32724
1.0427
1.08026
-0.13
-1.05416
-1.71325
-0.915254
-1.93325
0.155836
-0.222995
-1.71216
1.29026
1.82909
2.85826
1.225
-0.855254
0.158831
1.34883
1.92909
-1.03216
-2.79242
0.0408311
0.128831
2.02826
-0.652995
-2.00325
-2.31242
-1.83442
-0.0449954
0.700259
-1.543
-0.16891
0.59909
1.878
-0.264995
-0.295254
1.44883
-0.249844
0.08
-0.289249
0.100159
-0.369686
0.910159
-1.21925
0.790315
0.600596
-0.669844
-1.17941
-0.679689
-0.21953
-0.399686
-0.819564
-0.449564
-0.939408
-0.0194043
0.32044
-0.619719
-0.679564
0.260311
-0.149685
-0.949841
0.81044
-1.0394
0.27047
-0.489844
-0.959685
-0.149563
-1.04941
0.470155
-0.76953
0.0603143
-0.309564
0.0896211
-0.74
-1.42797
-0.399613
-1.73376
-1.06961
-1.08797
-1.33999
0.156179
-0.760379
1.05164
-2.22453
-1.46414
-0.78376
1.18202
0.0920237
0.101645
-0.563821
0.556558
1.05617
1.10202
-1.16453
-1.56999
-1.36961
0.276558
-0.347589
-2.58414
-1.51038
-0.589992
0.155792
-0.458355
-0.894147
-1.88414
-0.78376
1.60202
-0.154945
-0.88
-0.816424
0.537836
0.304918
-0.772164
-0.546424
-0.817108
0.396494
-0.304945
0.51574
-0.667863
0.199974
-0.955082
-0.659315
-0.209315
-1.29426
-0.243506
0.391439
0.0336025
-1.21932
-0.937863
0.502892
-0.172164
-0.658561
-1.10148
0.289974
-0.764945
0.302892
-0.351342
-1.25426
-0.782918
0.499974
-0.475082
0.220685
1.16363
0.54
0.016554
-0.307174
0.591632
0.622826
1.66655
1.28646
0.427748
-0.0563665
1.36373
1.24244
1.35527
0.00163184
-0.469905
0.170095
1.56373
1.50775
0.204114
0.181289
0.670095
-0.50756
0.366459
0.172826
0.124114
-0.13708
1.37527
0.273634
-0.0935408
-0.265078
-0.276272
-0.191194
0.665265
0.541632
0.610095
0.446508
0.17
0.115309
-0.547277
-0.783526
0.0627234
-1.42469
0.199231
0.0915588
-0.893492
-0.137414
-1.01974
-0.867018
0.496474
-0.393922
-0.103922
-1.05741
-0.208441
-1.21495
0.582327
-0.923922
-0.619742
0.269231
0.562723
-0.594949
-0.0711987
-0.137018
0.376508
-0.640769
-0.811165
-0.887414
0.71375
-0.507018
-0.333526
0.0460778

The final adjusted weights in layer 2 are:
1.02392
2.26547
-1.57723
0.518307
8.661
0.42578
-7.28285
0.411472
-0.46562
11.2138
6.64546
-0.386932
-6.26213
-0.791168
-10.683
0.732098
0.3508
-6.15742
9.27138
0.00496961
-1.71829
0.613742
-0.568374
0.412982
0.0243133
-4.09037
-3.61345
-0.353602
-2.69548
-0.433768
2.73541
0.617591
